{"gradients/fcl.bias": {"_type": "histogram", "values": [1.0, 0.0, 0.0, 0.0, 0.0, 0.0, 0.0, 0.0, 0.0, 0.0, 0.0, 0.0, 0.0, 0.0, 0.0, 0.0, 0.0, 0.0, 0.0, 0.0, 0.0, 0.0, 0.0, 0.0, 0.0, 0.0, 0.0, 0.0, 0.0, 0.0, 0.0, 0.0, 0.0, 0.0, 0.0, 0.0, 0.0, 0.0, 0.0, 0.0, 0.0, 17860.0, 1.0, 0.0, 0.0, 0.0, 0.0, 0.0, 0.0, 0.0, 0.0, 0.0, 0.0, 0.0, 0.0, 0.0, 0.0, 0.0, 0.0, 1.0, 0.0, 0.0, 0.0, 1.0], "bins": [-4.132852154725697e-06, -4.033597178931814e-06, -3.934342657885281e-06, -3.835087682091398e-06, -3.7358329336711904e-06, -3.6365781852509826e-06, -3.537323436830775e-06, -3.438068688410567e-06, -3.338813712616684e-06, -3.239558964196476e-06, -3.1403042157762684e-06, -3.041049239982385e-06, -2.9417944915621774e-06, -2.8425397431419697e-06, -2.743284994721762e-06, -2.644030246301554e-06, -2.5447754978813464e-06, -2.4455207494611386e-06, -2.346266001040931e-06, -2.247011252620723e-06, -2.14775627682684e-06, -2.048501528406632e-06, -1.9492467799864244e-06, -1.8499920315662166e-06, -1.7507371694591711e-06, -1.6514824210389634e-06, -1.5522275589319179e-06, -1.4529728105117101e-06, -1.3537180620915024e-06, -1.2544631999844569e-06, -1.1552084515642491e-06, -1.0559535894572036e-06, -9.566988410369959e-07, -8.574440357733693e-07, -7.581892305097426e-07, -6.589344820895349e-07, -5.596796768259082e-07, -4.604248715622816e-07, -3.6117012314207386e-07, -2.6191531787844724e-07, -1.6266051261482062e-07, -6.340572156204871e-08, 3.5849069490723195e-08, 1.351038463326404e-07, 2.34358651596267e-07, 3.3361345685989363e-07, 4.328682052801014e-07, 5.32123010543728e-07, 6.313778158073546e-07, 7.306326210709813e-07, 8.298874263346079e-07, 9.291421747548156e-07, 1.0283970368618611e-06, 1.1276517852820689e-06, 1.2269065337022766e-06, 1.3261612821224844e-06, 1.4254161442295299e-06, 1.5246708926497377e-06, 1.6239257547567831e-06, 1.723180503176991e-06, 1.8224352515971987e-06, 1.9216900000174064e-06, 2.0209449758112896e-06, 2.1201997242314974e-06, 2.219454472651705e-06]}, "gradients/fcl.weight": {"_type": "histogram", "values": [1.0, 1.0, 1.0, 6.0, 8.0, 12.0, 22.0, 9.0, 5.0, 11.0, 20.0, 36.0, 49.0, 43.0, 68.0, 79.0, 110.0, 99.0, 54.0, 42.0, 95.0, 107.0, 92.0, 169.0, 106.0, 184.0, 262.0, 202.0, 355.0, 355.0, 342.0, 333.0, 294.0, 698.0, 1003.0, 830.0, 786.0, 16777216.0, 1513.0, 846.0, 1085.0, 942.0, 623.0, 628.0, 531.0, 352.0, 343.0, 244.0, 141.0, 229.0, 196.0, 125.0, 203.0, 197.0, 214.0, 118.0, 67.0, 26.0, 11.0, 29.0, 4.0, 0.0, 1.0, 1.0], "bins": [-4.680595793615794e-06, -4.556016392598394e-06, -4.431436991580995e-06, -4.306857135816244e-06, -4.182277734798845e-06, -4.057698333781445e-06, -3.933118932764046e-06, -3.808539304372971e-06, -3.683959675981896e-06, -3.5593802749644965e-06, -3.4348006465734215e-06, -3.310221245556022e-06, -3.185641617164947e-06, -3.0610622161475476e-06, -2.936482815130148e-06, -2.811903186739073e-06, -2.6873237857216736e-06, -2.562744384704274e-06, -2.438164756313199e-06, -2.3135853552957997e-06, -2.1890057269047247e-06, -2.0644263258873252e-06, -1.9398466974962503e-06, -1.8152672964788508e-06, -1.6906877817746135e-06, -1.5661082670703763e-06, -1.441528752366139e-06, -1.3169492376619019e-06, -1.1923698366445024e-06, -1.0677902082534274e-06, -9.432108072360279e-07, -8.186312925317907e-07, -6.940517778275535e-07, -5.694722631233162e-07, -4.4489277684078843e-07, -3.2031329055826063e-07, -1.957337758540234e-07, -7.115426114978618e-08, 5.3425196711032186e-08, 1.780047114152694e-07, 3.0258422611950664e-07, 4.2716374082374386e-07, 5.517432555279811e-07, 6.763227133887995e-07, 8.009022280930367e-07, 9.254817427972739e-07, 1.0500612006580923e-06, 1.1746407153623295e-06, 1.2992202300665667e-06, 1.423799744770804e-06, 1.5483792594750412e-06, 1.6729586604924407e-06, 1.7975382888835156e-06, 1.922117689900915e-06, 2.04669731829199e-06, 2.1712767193093896e-06, 2.295856120326789e-06, 2.4204355213441886e-06, 2.5450151497352635e-06, 2.669594550752663e-06, 2.794174179143738e-06, 2.9187535801611375e-06, 3.043332981178537e-06, 3.167912609569612e-06, 3.292492237960687e-06]}, "loss": 9.12393636948023, "accuracy": 0.6705128205128205, "val_loss": 9.107240202898037, "val_accuracy": 0.6833832335329342, "epoch": 0, "_runtime": 449, "_timestamp": 1630920423, "_step": 0}